#pragma once
#include <cstdarg>
namespace Eloquent {
    namespace ML {
        namespace Port {
            class RandomForest {
                public:
                    /**
                    * Predict class for features vector
                    */
                    int predict(float *x) {
                        uint8_t votes[3] = { 0 };
                        // tree #1
                        if (x[7] <= 58.5) {
                            if (x[17] <= 109.5) {
                                if (x[11] <= 78.0) {
                                    votes[0] += 1;
                                }

                                else {
                                    if (x[4] <= 0.013442898634821177) {
                                        votes[2] += 1;
                                    }

                                    else {
                                        votes[1] += 1;
                                    }
                                }
                            }

                            else {
                                if (x[1] <= 0.002530578291043639) {
                                    if (x[7] <= 29.5) {
                                        if (x[2] <= 0.2341293767094612) {
                                            votes[0] += 1;
                                        }

                                        else {
                                            votes[2] += 1;
                                        }
                                    }

                                    else {
                                        if (x[18] <= 150.5) {
                                            if (x[5] <= 0.0005393743049353361) {
                                                if (x[16] <= 106.0) {
                                                    votes[1] += 1;
                                                }

                                                else {
                                                    votes[0] += 1;
                                                }
                                            }

                                            else {
                                                votes[2] += 1;
                                            }
                                        }

                                        else {
                                            if (x[9] <= 21.0) {
                                                if (x[16] <= 161.5) {
                                                    votes[1] += 1;
                                                }

                                                else {
                                                    votes[1] += 1;
                                                }
                                            }

                                            else {
                                                if (x[9] <= 61.0) {
                                                    votes[0] += 1;
                                                }

                                                else {
                                                    votes[1] += 1;
                                                }
                                            }
                                        }
                                    }
                                }

                                else {
                                    if (x[6] <= 0.00041701417649164796) {
                                        votes[0] += 1;
                                    }

                                    else {
                                        if (x[2] <= 0.3940313458442688) {
                                            votes[0] += 1;
                                        }

                                        else {
                                            votes[1] += 1;
                                        }
                                    }
                                }
                            }
                        }

                        else {
                            if (x[9] <= 6.5) {
                                if (x[16] <= 106.0) {
                                    votes[2] += 1;
                                }

                                else {
                                    if (x[17] <= 104.0) {
                                        votes[2] += 1;
                                    }

                                    else {
                                        if (x[17] <= 150.0) {
                                            if (x[3] <= 0.0027450795751065016) {
                                                if (x[16] <= 135.5) {
                                                    votes[2] += 1;
                                                }

                                                else {
                                                    votes[0] += 1;
                                                }
                                            }

                                            else {
                                                if (x[8] <= 0.6500000059604645) {
                                                    votes[0] += 1;
                                                }

                                                else {
                                                    votes[0] += 1;
                                                }
                                            }
                                        }

                                        else {
                                            if (x[10] <= 10.550000190734863) {
                                                votes[0] += 1;
                                            }

                                            else {
                                                votes[1] += 1;
                                            }
                                        }
                                    }
                                }
                            }

                            else {
                                if (x[9] <= 68.5) {
                                    if (x[3] <= 0.0008443044207524508) {
                                        if (x[13] <= 127.5) {
                                            if (x[7] <= 62.5) {
                                                if (x[14] <= 7.0) {
                                                    votes[1] += 1;
                                                }

                                                else {
                                                    votes[1] += 1;
                                                }
                                            }

                                            else {
                                                votes[1] += 1;
                                            }
                                        }

                                        else {
                                            if (x[0] <= 150.5) {
                                                if (x[17] <= 137.0) {
                                                    votes[2] += 1;
                                                }

                                                else {
                                                    votes[1] += 1;
                                                }
                                            }

                                            else {
                                                votes[2] += 1;
                                            }
                                        }
                                    }

                                    else {
                                        if (x[7] <= 69.5) {
                                            if (x[0] <= 128.5) {
                                                if (x[10] <= 4.6000001430511475) {
                                                    votes[0] += 1;
                                                }

                                                else {
                                                    votes[1] += 1;
                                                }
                                            }

                                            else {
                                                if (x[20] <= -0.5) {
                                                    votes[0] += 1;
                                                }

                                                else {
                                                    votes[1] += 1;
                                                }
                                            }
                                        }

                                        else {
                                            if (x[0] <= 136.5) {
                                                if (x[2] <= 0.0023902758257463574) {
                                                    votes[0] += 1;
                                                }

                                                else {
                                                    votes[1] += 1;
                                                }
                                            }

                                            else {
                                                if (x[3] <= 0.0030301521765068173) {
                                                    votes[1] += 1;
                                                }

                                                else {
                                                    votes[0] += 1;
                                                }
                                            }
                                        }
                                    }
                                }

                                else {
                                    if (x[3] <= 0.004222835414111614) {
                                        votes[2] += 1;
                                    }

                                    else {
                                        if (x[9] <= 77.0) {
                                            votes[0] += 1;
                                        }

                                        else {
                                            votes[2] += 1;
                                        }
                                    }
                                }
                            }
                        }

                        // tree #2
                        if (x[17] <= 107.5) {
                            if (x[16] <= 106.0) {
                                if (x[18] <= 91.5) {
                                    if (x[18] <= 89.0) {
                                        votes[2] += 1;
                                    }

                                    else {
                                        votes[1] += 1;
                                    }
                                }

                                else {
                                    votes[2] += 1;
                                }
                            }

                            else {
                                if (x[6] <= 0.0017444558907300234) {
                                    if (x[0] <= 124.5) {
                                        votes[0] += 1;
                                    }

                                    else {
                                        votes[2] += 1;
                                    }
                                }

                                else {
                                    votes[2] += 1;
                                }
                            }
                        }

                        else {
                            if (x[8] <= 0.550000011920929) {
                                if (x[9] <= 68.5) {
                                    if (x[9] <= 28.5) {
                                        if (x[10] <= 8.000000238418579) {
                                            if (x[12] <= 130.5) {
                                                votes[2] += 1;
                                            }

                                            else {
                                                if (x[0] <= 148.5) {
                                                    votes[1] += 1;
                                                }

                                                else {
                                                    votes[0] += 1;
                                                }
                                            }
                                        }

                                        else {
                                            if (x[2] <= 0.003459964180365205) {
                                                if (x[18] <= 168.0) {
                                                    votes[0] += 1;
                                                }

                                                else {
                                                    votes[1] += 1;
                                                }
                                            }

                                            else {
                                                if (x[17] <= 124.5) {
                                                    votes[0] += 1;
                                                }

                                                else {
                                                    votes[1] += 1;
                                                }
                                            }
                                        }
                                    }

                                    else {
                                        if (x[3] <= 0.003888888983055949) {
                                            if (x[20] <= -0.5) {
                                                if (x[8] <= 0.3500000089406967) {
                                                    votes[2] += 1;
                                                }

                                                else {
                                                    votes[0] += 1;
                                                }
                                            }

                                            else {
                                                if (x[16] <= 163.0) {
                                                    votes[1] += 1;
                                                }

                                                else {
                                                    votes[0] += 1;
                                                }
                                            }
                                        }

                                        else {
                                            if (x[10] <= 5.200000047683716) {
                                                if (x[13] <= 142.5) {
                                                    votes[0] += 1;
                                                }

                                                else {
                                                    votes[1] += 1;
                                                }
                                            }

                                            else {
                                                if (x[4] <= 0.0004512635350693017) {
                                                    votes[1] += 1;
                                                }

                                                else {
                                                    votes[0] += 1;
                                                }
                                            }
                                        }
                                    }
                                }

                                else {
                                    if (x[3] <= 0.004222835414111614) {
                                        votes[2] += 1;
                                    }

                                    else {
                                        votes[0] += 1;
                                    }
                                }
                            }

                            else {
                                if (x[9] <= 1.5) {
                                    if (x[17] <= 152.5) {
                                        if (x[1] <= 0.0015151549596339464) {
                                            if (x[7] <= 66.0) {
                                                if (x[14] <= 10.5) {
                                                    votes[0] += 1;
                                                }

                                                else {
                                                    votes[0] += 1;
                                                }
                                            }

                                            else {
                                                if (x[18] <= 126.5) {
                                                    votes[2] += 1;
                                                }

                                                else {
                                                    votes[0] += 1;
                                                }
                                            }
                                        }

                                        else {
                                            if (x[16] <= 97.5) {
                                                votes[2] += 1;
                                            }

                                            else {
                                                votes[0] += 1;
                                            }
                                        }
                                    }

                                    else {
                                        if (x[11] <= 93.0) {
                                            if (x[12] <= 170.0) {
                                                votes[1] += 1;
                                            }

                                            else {
                                                if (x[1] <= 0.0021318300860002637) {
                                                    votes[1] += 1;
                                                }

                                                else {
                                                    votes[0] += 1;
                                                }
                                            }
                                        }

                                        else {
                                            votes[0] += 1;
                                        }
                                    }
                                }

                                else {
                                    if (x[16] <= 140.5) {
                                        if (x[6] <= 0.001296031754463911) {
                                            if (x[7] <= 66.5) {
                                                votes[0] += 1;
                                            }

                                            else {
                                                if (x[17] <= 125.0) {
                                                    votes[1] += 1;
                                                }

                                                else {
                                                    votes[0] += 1;
                                                }
                                            }
                                        }

                                        else {
                                            votes[1] += 1;
                                        }
                                    }

                                    else {
                                        if (x[4] <= 0.0015237785992212594) {
                                            if (x[19] <= 2.5) {
                                                if (x[14] <= 6.0) {
                                                    votes[0] += 1;
                                                }

                                                else {
                                                    votes[1] += 1;
                                                }
                                            }

                                            else {
                                                if (x[1] <= 0.0020853754831478) {
                                                    votes[1] += 1;
                                                }

                                                else {
                                                    votes[0] += 1;
                                                }
                                            }
                                        }

                                        else {
                                            if (x[11] <= 143.0) {
                                                if (x[6] <= 0.0009823183063417673) {
                                                    votes[0] += 1;
                                                }

                                                else {
                                                    votes[1] += 1;
                                                }
                                            }

                                            else {
                                                votes[1] += 1;
                                            }
                                        }
                                    }
                                }
                            }
                        }

                        // tree #3
                        if (x[17] <= 107.5) {
                            if (x[11] <= 154.0) {
                                if (x[3] <= 0.003590982290916145) {
                                    if (x[19] <= 62.5) {
                                        votes[1] += 1;
                                    }

                                    else {
                                        votes[2] += 1;
                                    }
                                }

                                else {
                                    votes[2] += 1;
                                }
                            }

                            else {
                                if (x[7] <= 64.5) {
                                    votes[0] += 1;
                                }

                                else {
                                    votes[2] += 1;
                                }
                            }
                        }

                        else {
                            if (x[19] <= 1.5) {
                                if (x[7] <= 59.5) {
                                    if (x[9] <= 61.0) {
                                        if (x[17] <= 141.5) {
                                            votes[0] += 1;
                                        }

                                        else {
                                            if (x[11] <= 26.0) {
                                                if (x[11] <= 18.5) {
                                                    votes[0] += 1;
                                                }

                                                else {
                                                    votes[0] += 1;
                                                }
                                            }

                                            else {
                                                votes[0] += 1;
                                            }
                                        }
                                    }

                                    else {
                                        votes[1] += 1;
                                    }
                                }

                                else {
                                    if (x[9] <= 66.5) {
                                        if (x[3] <= 0.0008499146206304431) {
                                            if (x[7] <= 78.5) {
                                                if (x[9] <= 18.5) {
                                                    votes[1] += 1;
                                                }

                                                else {
                                                    votes[1] += 1;
                                                }
                                            }

                                            else {
                                                if (x[2] <= 0.0037496931618079543) {
                                                    votes[2] += 1;
                                                }

                                                else {
                                                    votes[1] += 1;
                                                }
                                            }
                                        }

                                        else {
                                            if (x[7] <= 67.5) {
                                                if (x[10] <= 9.400000095367432) {
                                                    votes[1] += 1;
                                                }

                                                else {
                                                    votes[0] += 1;
                                                }
                                            }

                                            else {
                                                if (x[7] <= 80.5) {
                                                    votes[0] += 1;
                                                }

                                                else {
                                                    votes[2] += 1;
                                                }
                                            }
                                        }
                                    }

                                    else {
                                        if (x[3] <= 0.003911050269380212) {
                                            votes[2] += 1;
                                        }

                                        else {
                                            if (x[17] <= 128.0) {
                                                votes[0] += 1;
                                            }

                                            else {
                                                votes[2] += 1;
                                            }
                                        }
                                    }
                                }
                            }

                            else {
                                if (x[9] <= 7.5) {
                                    if (x[6] <= 0.002351711969822645) {
                                        if (x[8] <= 0.949999988079071) {
                                            if (x[16] <= 161.5) {
                                                if (x[1] <= 0.0015372632187791169) {
                                                    votes[0] += 1;
                                                }

                                                else {
                                                    votes[0] += 1;
                                                }
                                            }

                                            else {
                                                if (x[18] <= 165.0) {
                                                    votes[1] += 1;
                                                }

                                                else {
                                                    votes[0] += 1;
                                                }
                                            }
                                        }

                                        else {
                                            if (x[11] <= 105.5) {
                                                if (x[12] <= 195.0) {
                                                    votes[0] += 1;
                                                }

                                                else {
                                                    votes[0] += 1;
                                                }
                                            }

                                            else {
                                                if (x[1] <= 0.001828089589253068) {
                                                    votes[0] += 1;
                                                }

                                                else {
                                                    votes[0] += 1;
                                                }
                                            }
                                        }
                                    }

                                    else {
                                        if (x[6] <= 0.002616106881760061) {
                                            votes[1] += 1;
                                        }

                                        else {
                                            votes[2] += 1;
                                        }
                                    }
                                }

                                else {
                                    if (x[7] <= 49.5) {
                                        if (x[17] <= 148.5) {
                                            votes[0] += 1;
                                        }

                                        else {
                                            if (x[1] <= 0.0017213246901519597) {
                                                if (x[7] <= 44.5) {
                                                    votes[1] += 1;
                                                }

                                                else {
                                                    votes[1] += 1;
                                                }
                                            }

                                            else {
                                                votes[0] += 1;
                                            }
                                        }
                                    }

                                    else {
                                        if (x[1] <= 0.002102843427564949) {
                                            if (x[7] <= 59.5) {
                                                if (x[17] <= 147.5) {
                                                    votes[0] += 1;
                                                }

                                                else {
                                                    votes[1] += 1;
                                                }
                                            }

                                            else {
                                                if (x[7] <= 74.0) {
                                                    votes[1] += 1;
                                                }

                                                else {
                                                    votes[1] += 1;
                                                }
                                            }
                                        }

                                        else {
                                            if (x[16] <= 153.5) {
                                                votes[0] += 1;
                                            }

                                            else {
                                                votes[1] += 1;
                                            }
                                        }
                                    }
                                }
                            }
                        }

                        // tree #4
                        if (x[1] <= 0.0019666615407913923) {
                            if (x[17] <= 107.5) {
                                if (x[12] <= 142.5) {
                                    votes[1] += 1;
                                }

                                else {
                                    if (x[7] <= 24.5) {
                                        votes[1] += 1;
                                    }

                                    else {
                                        if (x[12] <= 220.5) {
                                            votes[2] += 1;
                                        }

                                        else {
                                            votes[0] += 1;
                                        }
                                    }
                                }
                            }

                            else {
                                if (x[8] <= 0.550000011920929) {
                                    if (x[11] <= 9.5) {
                                        if (x[10] <= 4.200000047683716) {
                                            votes[2] += 1;
                                        }

                                        else {
                                            votes[1] += 1;
                                        }
                                    }

                                    else {
                                        if (x[9] <= 68.5) {
                                            if (x[7] <= 79.5) {
                                                if (x[2] <= 0.0016743644955568016) {
                                                    votes[1] += 1;
                                                }

                                                else {
                                                    votes[1] += 1;
                                                }
                                            }

                                            else {
                                                votes[2] += 1;
                                            }
                                        }

                                        else {
                                            if (x[20] <= -0.5) {
                                                votes[0] += 1;
                                            }

                                            else {
                                                if (x[16] <= 123.5) {
                                                    votes[0] += 1;
                                                }

                                                else {
                                                    votes[2] += 1;
                                                }
                                            }
                                        }
                                    }
                                }

                                else {
                                    if (x[17] <= 142.5) {
                                        if (x[8] <= 1.050000011920929) {
                                            if (x[12] <= 197.5) {
                                                if (x[19] <= 1.5) {
                                                    votes[0] += 1;
                                                }

                                                else {
                                                    votes[0] += 1;
                                                }
                                            }

                                            else {
                                                votes[1] += 1;
                                            }
                                        }

                                        else {
                                            if (x[2] <= 0.12350530922412872) {
                                                if (x[5] <= 0.0005393743049353361) {
                                                    votes[0] += 1;
                                                }

                                                else {
                                                    votes[2] += 1;
                                                }
                                            }

                                            else {
                                                votes[2] += 1;
                                            }
                                        }
                                    }

                                    else {
                                        if (x[3] <= 0.003943722229450941) {
                                            if (x[10] <= 17.350000381469727) {
                                                if (x[14] <= 5.5) {
                                                    votes[1] += 1;
                                                }

                                                else {
                                                    votes[1] += 1;
                                                }
                                            }

                                            else {
                                                if (x[18] <= 151.5) {
                                                    votes[0] += 1;
                                                }

                                                else {
                                                    votes[1] += 1;
                                                }
                                            }
                                        }

                                        else {
                                            if (x[16] <= 155.0) {
                                                if (x[17] <= 148.5) {
                                                    votes[0] += 1;
                                                }

                                                else {
                                                    votes[0] += 1;
                                                }
                                            }

                                            else {
                                                if (x[9] <= 34.0) {
                                                    votes[1] += 1;
                                                }

                                                else {
                                                    votes[0] += 1;
                                                }
                                            }
                                        }
                                    }
                                }
                            }
                        }

                        else {
                            if (x[16] <= 97.0) {
                                votes[2] += 1;
                            }

                            else {
                                if (x[11] <= 27.0) {
                                    if (x[13] <= 134.5) {
                                        votes[0] += 1;
                                    }

                                    else {
                                        if (x[1] <= 0.0030653219437226653) {
                                            votes[1] += 1;
                                        }

                                        else {
                                            votes[0] += 1;
                                        }
                                    }
                                }

                                else {
                                    if (x[6] <= 0.0007654462242498994) {
                                        votes[0] += 1;
                                    }

                                    else {
                                        if (x[6] <= 0.0008368294511456043) {
                                            votes[1] += 1;
                                        }

                                        else {
                                            votes[0] += 1;
                                        }
                                    }
                                }
                            }
                        }

                        // tree #5
                        if (x[1] <= 0.0018450247589498758) {
                            if (x[18] <= 139.5) {
                                if (x[18] <= 112.5) {
                                    if (x[17] <= 107.5) {
                                        if (x[7] <= 24.5) {
                                            votes[1] += 1;
                                        }

                                        else {
                                            votes[2] += 1;
                                        }
                                    }

                                    else {
                                        votes[0] += 1;
                                    }
                                }

                                else {
                                    if (x[8] <= 0.45000000298023224) {
                                        if (x[14] <= 2.5) {
                                            if (x[11] <= 17.5) {
                                                if (x[13] <= 116.5) {
                                                    votes[1] += 1;
                                                }

                                                else {
                                                    votes[2] += 1;
                                                }
                                            }

                                            else {
                                                if (x[3] <= 0.005604227306321263) {
                                                    votes[2] += 1;
                                                }

                                                else {
                                                    votes[0] += 1;
                                                }
                                            }
                                        }

                                        else {
                                            votes[1] += 1;
                                        }
                                    }

                                    else {
                                        if (x[17] <= 109.5) {
                                            if (x[11] <= 152.0) {
                                                votes[2] += 1;
                                            }

                                            else {
                                                votes[0] += 1;
                                            }
                                        }

                                        else {
                                            if (x[7] <= 59.0) {
                                                if (x[19] <= 58.5) {
                                                    votes[0] += 1;
                                                }

                                                else {
                                                    votes[0] += 1;
                                                }
                                            }

                                            else {
                                                if (x[10] <= 7.800000190734863) {
                                                    votes[0] += 1;
                                                }

                                                else {
                                                    votes[1] += 1;
                                                }
                                            }
                                        }
                                    }
                                }
                            }

                            else {
                                if (x[3] <= 0.002291627344675362) {
                                    if (x[10] <= 7.25) {
                                        if (x[8] <= 0.6500000059604645) {
                                            if (x[9] <= 68.5) {
                                                if (x[7] <= 79.5) {
                                                    votes[1] += 1;
                                                }

                                                else {
                                                    votes[2] += 1;
                                                }
                                            }

                                            else {
                                                votes[2] += 1;
                                            }
                                        }

                                        else {
                                            if (x[14] <= 6.5) {
                                                votes[0] += 1;
                                            }

                                            else {
                                                votes[1] += 1;
                                            }
                                        }
                                    }

                                    else {
                                        if (x[9] <= 34.5) {
                                            if (x[2] <= 0.00961483083665371) {
                                                if (x[8] <= 0.3500000089406967) {
                                                    votes[0] += 1;
                                                }

                                                else {
                                                    votes[1] += 1;
                                                }
                                            }

                                            else {
                                                votes[1] += 1;
                                            }
                                        }

                                        else {
                                            votes[1] += 1;
                                        }
                                    }
                                }

                                else {
                                    if (x[7] <= 59.5) {
                                        if (x[12] <= 167.5) {
                                            if (x[20] <= 0.5) {
                                                if (x[0] <= 144.5) {
                                                    votes[0] += 1;
                                                }

                                                else {
                                                    votes[0] += 1;
                                                }
                                            }

                                            else {
                                                if (x[4] <= 0.0004512635350693017) {
                                                    votes[0] += 1;
                                                }

                                                else {
                                                    votes[0] += 1;
                                                }
                                            }
                                        }

                                        else {
                                            if (x[1] <= 0.0011595833348110318) {
                                                if (x[17] <= 149.0) {
                                                    votes[0] += 1;
                                                }

                                                else {
                                                    votes[1] += 1;
                                                }
                                            }

                                            else {
                                                if (x[13] <= 139.0) {
                                                    votes[0] += 1;
                                                }

                                                else {
                                                    votes[0] += 1;
                                                }
                                            }
                                        }
                                    }

                                    else {
                                        if (x[9] <= 5.5) {
                                            if (x[19] <= 1.5) {
                                                if (x[12] <= 159.0) {
                                                    votes[0] += 1;
                                                }

                                                else {
                                                    votes[1] += 1;
                                                }
                                            }

                                            else {
                                                votes[0] += 1;
                                            }
                                        }

                                        else {
                                            if (x[7] <= 66.5) {
                                                if (x[14] <= 3.5) {
                                                    votes[1] += 1;
                                                }

                                                else {
                                                    votes[1] += 1;
                                                }
                                            }

                                            else {
                                                if (x[7] <= 71.5) {
                                                    votes[1] += 1;
                                                }

                                                else {
                                                    votes[0] += 1;
                                                }
                                            }
                                        }
                                    }
                                }
                            }
                        }

                        else {
                            if (x[6] <= 0.0010068932897411287) {
                                if (x[14] <= 12.5) {
                                    if (x[13] <= 138.0) {
                                        votes[0] += 1;
                                    }

                                    else {
                                        if (x[8] <= 0.550000011920929) {
                                            votes[0] += 1;
                                        }

                                        else {
                                            votes[0] += 1;
                                        }
                                    }
                                }

                                else {
                                    votes[0] += 1;
                                }
                            }

                            else {
                                if (x[20] <= -0.5) {
                                    votes[2] += 1;
                                }

                                else {
                                    votes[0] += 1;
                                }
                            }
                        }

                        // tree #6
                        if (x[17] <= 107.5) {
                            if (x[11] <= 140.0) {
                                votes[2] += 1;
                            }

                            else {
                                if (x[13] <= 51.0) {
                                    votes[2] += 1;
                                }

                                else {
                                    if (x[16] <= 98.5) {
                                        votes[1] += 1;
                                    }

                                    else {
                                        votes[0] += 1;
                                    }
                                }
                            }
                        }

                        else {
                            if (x[13] <= 126.5) {
                                if (x[9] <= 7.5) {
                                    if (x[1] <= 0.0017022768734022975) {
                                        if (x[16] <= 152.5) {
                                            if (x[14] <= 13.5) {
                                                if (x[19] <= 49.5) {
                                                    votes[0] += 1;
                                                }

                                                else {
                                                    votes[0] += 1;
                                                }
                                            }

                                            else {
                                                votes[2] += 1;
                                            }
                                        }

                                        else {
                                            if (x[3] <= 0.006754193687811494) {
                                                votes[1] += 1;
                                            }

                                            else {
                                                votes[0] += 1;
                                            }
                                        }
                                    }

                                    else {
                                        if (x[18] <= 111.5) {
                                            votes[2] += 1;
                                        }

                                        else {
                                            votes[0] += 1;
                                        }
                                    }
                                }

                                else {
                                    if (x[7] <= 59.5) {
                                        if (x[18] <= 140.5) {
                                            votes[0] += 1;
                                        }

                                        else {
                                            if (x[1] <= 0.001822460035327822) {
                                                if (x[11] <= 118.5) {
                                                    votes[0] += 1;
                                                }

                                                else {
                                                    votes[1] += 1;
                                                }
                                            }

                                            else {
                                                votes[0] += 1;
                                            }
                                        }
                                    }

                                    else {
                                        if (x[3] <= 0.001875140587799251) {
                                            if (x[18] <= 146.5) {
                                                if (x[9] <= 68.0) {
                                                    votes[1] += 1;
                                                }

                                                else {
                                                    votes[2] += 1;
                                                }
                                            }

                                            else {
                                                if (x[0] <= 140.0) {
                                                    votes[0] += 1;
                                                }

                                                else {
                                                    votes[1] += 1;
                                                }
                                            }
                                        }

                                        else {
                                            if (x[10] <= 6.049999952316284) {
                                                if (x[7] <= 61.0) {
                                                    votes[1] += 1;
                                                }

                                                else {
                                                    votes[0] += 1;
                                                }
                                            }

                                            else {
                                                votes[1] += 1;
                                            }
                                        }
                                    }
                                }
                            }

                            else {
                                if (x[7] <= 59.5) {
                                    if (x[1] <= 0.0029524704441428185) {
                                        if (x[12] <= 161.5) {
                                            votes[0] += 1;
                                        }

                                        else {
                                            if (x[19] <= 0.5) {
                                                if (x[11] <= 10.5) {
                                                    votes[1] += 1;
                                                }

                                                else {
                                                    votes[0] += 1;
                                                }
                                            }

                                            else {
                                                if (x[0] <= 152.0) {
                                                    votes[1] += 1;
                                                }

                                                else {
                                                    votes[0] += 1;
                                                }
                                            }
                                        }
                                    }

                                    else {
                                        votes[0] += 1;
                                    }
                                }

                                else {
                                    if (x[9] <= 67.0) {
                                        if (x[0] <= 143.5) {
                                            if (x[3] <= 0.0008499146206304431) {
                                                if (x[7] <= 78.5) {
                                                    votes[1] += 1;
                                                }

                                                else {
                                                    votes[2] += 1;
                                                }
                                            }

                                            else {
                                                if (x[2] <= 0.0013756920234300196) {
                                                    votes[0] += 1;
                                                }

                                                else {
                                                    votes[1] += 1;
                                                }
                                            }
                                        }

                                        else {
                                            if (x[9] <= 38.5) {
                                                if (x[3] <= 0.0021197193418629467) {
                                                    votes[2] += 1;
                                                }

                                                else {
                                                    votes[1] += 1;
                                                }
                                            }

                                            else {
                                                votes[1] += 1;
                                            }
                                        }
                                    }

                                    else {
                                        if (x[3] <= 0.00475949514657259) {
                                            votes[2] += 1;
                                        }

                                        else {
                                            votes[0] += 1;
                                        }
                                    }
                                }
                            }
                        }

                        // tree #7
                        if (x[1] <= 0.0018450247589498758) {
                            if (x[6] <= 0.0009480589651502669) {
                                if (x[8] <= 0.550000011920929) {
                                    if (x[9] <= 66.5) {
                                        if (x[9] <= 29.5) {
                                            if (x[7] <= 79.5) {
                                                if (x[2] <= 0.018171783536672592) {
                                                    votes[0] += 1;
                                                }

                                                else {
                                                    votes[1] += 1;
                                                }
                                            }

                                            else {
                                                votes[2] += 1;
                                            }
                                        }

                                        else {
                                            if (x[3] <= 0.006719825556501746) {
                                                if (x[7] <= 78.5) {
                                                    votes[1] += 1;
                                                }

                                                else {
                                                    votes[2] += 1;
                                                }
                                            }

                                            else {
                                                votes[0] += 1;
                                            }
                                        }
                                    }

                                    else {
                                        if (x[3] <= 0.003213734074961394) {
                                            if (x[14] <= 3.5) {
                                                votes[2] += 1;
                                            }

                                            else {
                                                votes[1] += 1;
                                            }
                                        }

                                        else {
                                            votes[0] += 1;
                                        }
                                    }
                                }

                                else {
                                    if (x[16] <= 108.5) {
                                        if (x[12] <= 162.0) {
                                            if (x[7] <= 29.0) {
                                                votes[0] += 1;
                                            }

                                            else {
                                                votes[2] += 1;
                                            }
                                        }

                                        else {
                                            votes[1] += 1;
                                        }
                                    }

                                    else {
                                        if (x[16] <= 142.5) {
                                            if (x[11] <= 109.0) {
                                                if (x[8] <= 0.75) {
                                                    votes[0] += 1;
                                                }

                                                else {
                                                    votes[0] += 1;
                                                }
                                            }

                                            else {
                                                if (x[19] <= 5.0) {
                                                    votes[1] += 1;
                                                }

                                                else {
                                                    votes[0] += 1;
                                                }
                                            }
                                        }

                                        else {
                                            if (x[9] <= 7.5) {
                                                if (x[16] <= 155.5) {
                                                    votes[0] += 1;
                                                }

                                                else {
                                                    votes[1] += 1;
                                                }
                                            }

                                            else {
                                                if (x[10] <= 10.699999809265137) {
                                                    votes[0] += 1;
                                                }

                                                else {
                                                    votes[1] += 1;
                                                }
                                            }
                                        }
                                    }
                                }
                            }

                            else {
                                if (x[18] <= 129.0) {
                                    if (x[0] <= 128.5) {
                                        if (x[16] <= 106.0) {
                                            votes[2] += 1;
                                        }

                                        else {
                                            if (x[11] <= 127.0) {
                                                if (x[3] <= 0.004298857529647648) {
                                                    votes[0] += 1;
                                                }

                                                else {
                                                    votes[0] += 1;
                                                }
                                            }

                                            else {
                                                votes[2] += 1;
                                            }
                                        }
                                    }

                                    else {
                                        votes[2] += 1;
                                    }
                                }

                                else {
                                    if (x[12] <= 182.5) {
                                        votes[0] += 1;
                                    }

                                    else {
                                        votes[1] += 1;
                                    }
                                }
                            }
                        }

                        else {
                            if (x[16] <= 98.5) {
                                votes[2] += 1;
                            }

                            else {
                                if (x[2] <= 0.0021978127770125866) {
                                    votes[0] += 1;
                                }

                                else {
                                    if (x[11] <= 27.5) {
                                        if (x[16] <= 140.0) {
                                            votes[0] += 1;
                                        }

                                        else {
                                            votes[1] += 1;
                                        }
                                    }

                                    else {
                                        if (x[9] <= 25.5) {
                                            if (x[19] <= 75.5) {
                                                votes[0] += 1;
                                            }

                                            else {
                                                if (x[11] <= 127.0) {
                                                    votes[1] += 1;
                                                }

                                                else {
                                                    votes[0] += 1;
                                                }
                                            }
                                        }

                                        else {
                                            votes[1] += 1;
                                        }
                                    }
                                }
                            }
                        }

                        // tree #8
                        if (x[1] <= 0.0008707024098839611) {
                            if (x[8] <= 0.45000000298023224) {
                                if (x[9] <= 68.0) {
                                    if (x[7] <= 80.0) {
                                        if (x[9] <= 9.5) {
                                            if (x[7] <= 74.0) {
                                                votes[0] += 1;
                                            }

                                            else {
                                                votes[1] += 1;
                                            }
                                        }

                                        else {
                                            if (x[3] <= 0.005518360761925578) {
                                                if (x[2] <= 0.024993312545120716) {
                                                    votes[1] += 1;
                                                }

                                                else {
                                                    votes[2] += 1;
                                                }
                                            }

                                            else {
                                                if (x[17] <= 152.0) {
                                                    votes[0] += 1;
                                                }

                                                else {
                                                    votes[1] += 1;
                                                }
                                            }
                                        }
                                    }

                                    else {
                                        votes[2] += 1;
                                    }
                                }

                                else {
                                    if (x[20] <= -0.5) {
                                        votes[0] += 1;
                                    }

                                    else {
                                        votes[2] += 1;
                                    }
                                }
                            }

                            else {
                                if (x[17] <= 106.5) {
                                    if (x[4] <= 0.013727928511798382) {
                                        if (x[18] <= 122.0) {
                                            votes[2] += 1;
                                        }

                                        else {
                                            votes[0] += 1;
                                        }
                                    }

                                    else {
                                        votes[1] += 1;
                                    }
                                }

                                else {
                                    if (x[17] <= 137.5) {
                                        if (x[17] <= 118.5) {
                                            if (x[0] <= 130.0) {
                                                votes[0] += 1;
                                            }

                                            else {
                                                if (x[12] <= 152.0) {
                                                    votes[2] += 1;
                                                }

                                                else {
                                                    votes[0] += 1;
                                                }
                                            }
                                        }

                                        else {
                                            if (x[13] <= 50.5) {
                                                if (x[10] <= 13.850000381469727) {
                                                    votes[1] += 1;
                                                }

                                                else {
                                                    votes[0] += 1;
                                                }
                                            }

                                            else {
                                                if (x[14] <= 3.5) {
                                                    votes[0] += 1;
                                                }

                                                else {
                                                    votes[0] += 1;
                                                }
                                            }
                                        }
                                    }

                                    else {
                                        if (x[0] <= 135.5) {
                                            if (x[19] <= 1.5) {
                                                if (x[11] <= 68.5) {
                                                    votes[0] += 1;
                                                }

                                                else {
                                                    votes[2] += 1;
                                                }
                                            }

                                            else {
                                                votes[1] += 1;
                                            }
                                        }

                                        else {
                                            if (x[7] <= 59.0) {
                                                if (x[17] <= 147.5) {
                                                    votes[0] += 1;
                                                }

                                                else {
                                                    votes[0] += 1;
                                                }
                                            }

                                            else {
                                                if (x[0] <= 140.5) {
                                                    votes[0] += 1;
                                                }

                                                else {
                                                    votes[1] += 1;
                                                }
                                            }
                                        }
                                    }
                                }
                            }
                        }

                        else {
                            if (x[10] <= 0.10000000149011612) {
                                if (x[6] <= 0.0015722454409115016) {
                                    if (x[17] <= 104.0) {
                                        votes[2] += 1;
                                    }

                                    else {
                                        votes[0] += 1;
                                    }
                                }

                                else {
                                    votes[2] += 1;
                                }
                            }

                            else {
                                if (x[3] <= 0.0018519534496590495) {
                                    if (x[18] <= 142.5) {
                                        votes[0] += 1;
                                    }

                                    else {
                                        if (x[1] <= 0.0029005246469751) {
                                            if (x[10] <= 14.15000057220459) {
                                                if (x[0] <= 137.5) {
                                                    votes[0] += 1;
                                                }

                                                else {
                                                    votes[1] += 1;
                                                }
                                            }

                                            else {
                                                votes[0] += 1;
                                            }
                                        }

                                        else {
                                            votes[0] += 1;
                                        }
                                    }
                                }

                                else {
                                    if (x[1] <= 0.0025402656756341457) {
                                        if (x[19] <= 91.5) {
                                            if (x[17] <= 145.5) {
                                                votes[0] += 1;
                                            }

                                            else {
                                                if (x[1] <= 0.0012248174170963466) {
                                                    votes[0] += 1;
                                                }

                                                else {
                                                    votes[0] += 1;
                                                }
                                            }
                                        }

                                        else {
                                            votes[1] += 1;
                                        }
                                    }

                                    else {
                                        votes[0] += 1;
                                    }
                                }
                            }
                        }

                        // tree #9
                        if (x[7] <= 59.5) {
                            if (x[18] <= 150.5) {
                                if (x[17] <= 108.0) {
                                    if (x[7] <= 25.0) {
                                        votes[1] += 1;
                                    }

                                    else {
                                        if (x[4] <= 0.012577501125633717) {
                                            votes[2] += 1;
                                        }

                                        else {
                                            votes[0] += 1;
                                        }
                                    }
                                }

                                else {
                                    if (x[9] <= 14.5) {
                                        if (x[5] <= 0.0005393743049353361) {
                                            if (x[19] <= 102.0) {
                                                if (x[18] <= 139.5) {
                                                    votes[0] += 1;
                                                }

                                                else {
                                                    votes[0] += 1;
                                                }
                                            }

                                            else {
                                                if (x[6] <= 0.0014124406152404845) {
                                                    votes[0] += 1;
                                                }

                                                else {
                                                    votes[1] += 1;
                                                }
                                            }
                                        }

                                        else {
                                            votes[2] += 1;
                                        }
                                    }

                                    else {
                                        if (x[11] <= 131.0) {
                                            if (x[2] <= 0.008282842114567757) {
                                                if (x[9] <= 58.0) {
                                                    votes[0] += 1;
                                                }

                                                else {
                                                    votes[1] += 1;
                                                }
                                            }

                                            else {
                                                votes[1] += 1;
                                            }
                                        }

                                        else {
                                            votes[1] += 1;
                                        }
                                    }
                                }
                            }

                            else {
                                if (x[1] <= 0.001976292347535491) {
                                    if (x[10] <= 8.050000190734863) {
                                        if (x[9] <= 61.0) {
                                            if (x[10] <= 6.049999952316284) {
                                                votes[0] += 1;
                                            }

                                            else {
                                                if (x[0] <= 151.0) {
                                                    votes[1] += 1;
                                                }

                                                else {
                                                    votes[0] += 1;
                                                }
                                            }
                                        }

                                        else {
                                            votes[1] += 1;
                                        }
                                    }

                                    else {
                                        if (x[17] <= 147.5) {
                                            votes[0] += 1;
                                        }

                                        else {
                                            if (x[14] <= 3.5) {
                                                if (x[16] <= 154.0) {
                                                    votes[1] += 1;
                                                }

                                                else {
                                                    votes[1] += 1;
                                                }
                                            }

                                            else {
                                                votes[1] += 1;
                                            }
                                        }
                                    }
                                }

                                else {
                                    if (x[2] <= 0.0027010891353711486) {
                                        votes[0] += 1;
                                    }

                                    else {
                                        if (x[19] <= 2.5) {
                                            votes[1] += 1;
                                        }

                                        else {
                                            if (x[1] <= 0.00569357443600893) {
                                                votes[1] += 1;
                                            }

                                            else {
                                                votes[0] += 1;
                                            }
                                        }
                                    }
                                }
                            }
                        }

                        else {
                            if (x[8] <= 0.6500000059604645) {
                                if (x[7] <= 80.5) {
                                    if (x[11] <= 9.5) {
                                        if (x[10] <= 4.25) {
                                            votes[2] += 1;
                                        }

                                        else {
                                            votes[1] += 1;
                                        }
                                    }

                                    else {
                                        if (x[10] <= 4.1499998569488525) {
                                            if (x[18] <= 149.5) {
                                                if (x[9] <= 77.0) {
                                                    votes[0] += 1;
                                                }

                                                else {
                                                    votes[2] += 1;
                                                }
                                            }

                                            else {
                                                votes[1] += 1;
                                            }
                                        }

                                        else {
                                            if (x[9] <= 40.5) {
                                                if (x[9] <= 7.5) {
                                                    votes[0] += 1;
                                                }

                                                else {
                                                    votes[1] += 1;
                                                }
                                            }

                                            else {
                                                if (x[0] <= 135.5) {
                                                    votes[2] += 1;
                                                }

                                                else {
                                                    votes[1] += 1;
                                                }
                                            }
                                        }
                                    }
                                }

                                else {
                                    votes[2] += 1;
                                }
                            }

                            else {
                                if (x[6] <= 0.001648125529754907) {
                                    if (x[18] <= 106.5) {
                                        votes[2] += 1;
                                    }

                                    else {
                                        if (x[17] <= 147.5) {
                                            if (x[9] <= 7.0) {
                                                if (x[19] <= 49.5) {
                                                    votes[0] += 1;
                                                }

                                                else {
                                                    votes[0] += 1;
                                                }
                                            }

                                            else {
                                                if (x[14] <= 5.5) {
                                                    votes[0] += 1;
                                                }

                                                else {
                                                    votes[1] += 1;
                                                }
                                            }
                                        }

                                        else {
                                            if (x[0] <= 148.5) {
                                                votes[0] += 1;
                                            }

                                            else {
                                                votes[1] += 1;
                                            }
                                        }
                                    }
                                }

                                else {
                                    if (x[0] <= 135.0) {
                                        votes[2] += 1;
                                    }

                                    else {
                                        votes[0] += 1;
                                    }
                                }
                            }
                        }

                        // tree #10
                        if (x[1] <= 0.001855389797128737) {
                            if (x[17] <= 107.5) {
                                if (x[7] <= 25.0) {
                                    votes[1] += 1;
                                }

                                else {
                                    if (x[4] <= 0.012336232233792543) {
                                        votes[2] += 1;
                                    }

                                    else {
                                        votes[0] += 1;
                                    }
                                }
                            }

                            else {
                                if (x[8] <= 0.550000011920929) {
                                    if (x[7] <= 59.5) {
                                        if (x[13] <= 138.5) {
                                            if (x[2] <= 0.005988184129819274) {
                                                votes[0] += 1;
                                            }

                                            else {
                                                votes[1] += 1;
                                            }
                                        }

                                        else {
                                            if (x[11] <= 17.5) {
                                                votes[0] += 1;
                                            }

                                            else {
                                                if (x[3] <= 0.007521971827372909) {
                                                    votes[1] += 1;
                                                }

                                                else {
                                                    votes[0] += 1;
                                                }
                                            }
                                        }
                                    }

                                    else {
                                        if (x[9] <= 68.0) {
                                            if (x[7] <= 79.5) {
                                                if (x[3] <= 0.000851310498546809) {
                                                    votes[1] += 1;
                                                }

                                                else {
                                                    votes[1] += 1;
                                                }
                                            }

                                            else {
                                                votes[2] += 1;
                                            }
                                        }

                                        else {
                                            if (x[3] <= 0.004222835414111614) {
                                                votes[2] += 1;
                                            }

                                            else {
                                                votes[0] += 1;
                                            }
                                        }
                                    }
                                }

                                else {
                                    if (x[18] <= 139.5) {
                                        if (x[19] <= 102.0) {
                                            if (x[0] <= 130.5) {
                                                if (x[7] <= 58.5) {
                                                    votes[0] += 1;
                                                }

                                                else {
                                                    votes[0] += 1;
                                                }
                                            }

                                            else {
                                                if (x[6] <= 0.0012424835294950753) {
                                                    votes[0] += 1;
                                                }

                                                else {
                                                    votes[2] += 1;
                                                }
                                            }
                                        }

                                        else {
                                            votes[2] += 1;
                                        }
                                    }

                                    else {
                                        if (x[12] <= 166.5) {
                                            if (x[3] <= 0.0005518763791769743) {
                                                if (x[9] <= 21.5) {
                                                    votes[0] += 1;
                                                }

                                                else {
                                                    votes[1] += 1;
                                                }
                                            }

                                            else {
                                                if (x[4] <= 0.0010107227717526257) {
                                                    votes[0] += 1;
                                                }

                                                else {
                                                    votes[0] += 1;
                                                }
                                            }
                                        }

                                        else {
                                            if (x[13] <= 123.0) {
                                                if (x[14] <= 7.5) {
                                                    votes[0] += 1;
                                                }

                                                else {
                                                    votes[1] += 1;
                                                }
                                            }

                                            else {
                                                if (x[16] <= 158.0) {
                                                    votes[1] += 1;
                                                }

                                                else {
                                                    votes[1] += 1;
                                                }
                                            }
                                        }
                                    }
                                }
                            }
                        }

                        else {
                            if (x[16] <= 98.5) {
                                votes[2] += 1;
                            }

                            else {
                                if (x[14] <= 12.5) {
                                    if (x[19] <= 1.5) {
